Language model created by QuickLM on Thu Nov 13 06:59:12 EST 2025
Copyright (c) 1996-2010 Carnegie Mellon University and Alexander I. Rudnicky

The model is in standard ARPA format, designed by Doug Paul while he was at MITRE.

The code that was used to produce this language model is available in Open Source.
Please visit http://www.speech.cs.cmu.edu/tools/ for more information

The (fixed) discount mass is 0.5. The backoffs are computed using the ratio method.
This model based on a corpus of 9 sentences and 12 words

\data\
ngram 1=12
ngram 2=19
ngram 3=17

\1-grams:
-0.8909 </s> -0.3010
-0.8909 <s> -0.2413
-1.5441 CHROME -0.2413
-1.3680 CLOSE -0.2621
-1.8451 DICTATION -0.2413
-1.5441 DRIVE -0.2413
-1.8451 EDIT -0.2948
-1.8451 EXIT -0.2413
-1.8451 FILE -0.2413
-1.5441 GMAIL -0.2413
-1.3680 OPEN -0.2621
-1.8451 STOP -0.2948

\2-grams:
-0.7782 <s> CLOSE 0.0000
-1.2553 <s> EDIT 0.0000
-1.2553 <s> EXIT 0.0000
-0.7782 <s> OPEN 0.0000
-1.2553 <s> STOP 0.0000
-0.3010 CHROME </s> -0.3010
-0.7782 CLOSE CHROME 0.0000
-0.7782 CLOSE DRIVE 0.0000
-0.7782 CLOSE GMAIL 0.0000
-0.3010 DICTATION </s> -0.3010
-0.3010 DRIVE </s> -0.3010
-0.3010 EDIT FILE 0.0000
-0.3010 EXIT </s> -0.3010
-0.3010 FILE </s> -0.3010
-0.3010 GMAIL </s> -0.3010
-0.7782 OPEN CHROME 0.0000
-0.7782 OPEN DRIVE 0.0000
-0.7782 OPEN GMAIL 0.0000
-0.3010 STOP DICTATION 0.0000

\3-grams:
-0.7782 <s> CLOSE CHROME
-0.7782 <s> CLOSE DRIVE
-0.7782 <s> CLOSE GMAIL
-0.3010 <s> EDIT FILE
-0.3010 <s> EXIT </s>
-0.7782 <s> OPEN CHROME
-0.7782 <s> OPEN DRIVE
-0.7782 <s> OPEN GMAIL
-0.3010 <s> STOP DICTATION
-0.3010 CLOSE CHROME </s>
-0.3010 CLOSE DRIVE </s>
-0.3010 CLOSE GMAIL </s>
-0.3010 EDIT FILE </s>
-0.3010 OPEN CHROME </s>
-0.3010 OPEN DRIVE </s>
-0.3010 OPEN GMAIL </s>
-0.3010 STOP DICTATION </s>

\end\